mean	stdev	OPN	EXT	CSN	EST	AGR
0.245938	0.430642	-0.0119384	-0.154922	-0.110466	0.0286881	0.0885801
0.196156	0.397088	-0.0508081	-0.0228337	-0.0608602	-0.0556491	0.0229786
0.284261	0.451062	0.0740405	0.0481464	0.0249257	-0.0281507	-0.0231322
0.188743	0.391304	-0.0407131	0.100516	0.0822125	0.00377294	-0.0646839
0.0794827	0.270491	0.0276689	0.0550394	0.1027	0.0769516	-0.0431994
0.206929	0.405105	0.013363	0.102657	0.12744	0.0930084	-0.0967946
0.231969	0.42209	-0.0417458	0.072189	0.0150645	-0.0368831	-0.0412093
0.240986	0.427682	0.0618728	-0.0156106	-0.0159296	-0.0412742	0.0100708
0.187342	0.390186	-0.0389625	-0.0567014	-0.0789073	-0.0487395	0.0612275
0.12501	0.33073	0.00154656	-0.129688	-0.0638495	0.0435657	0.0852176
0.0755707	0.26431	-0.0294408	-0.137659	-0.0191222	0.0561941	0.0408835
0.188826	0.391371	-0.0730782	-0.111774	-0.0715321	-0.0304145	0.029088
0.265069	0.44137	0.0627465	-0.0359819	-0.0136015	-0.0522585	0.000612491
0.279831	0.448916	-0.0242967	0.102765	0.0163272	-0.052204	-0.0270025
0.182964	0.386637	0.0492589	0.129709	0.0798765	0.1123	-0.0272346
0.10049	0.300653	0.0110947	0.0881993	0.111304	0.0971125	-0.0314604
0.205039	0.40373	-0.0435698	0.108137	0.0654303	-0.0128691	-0.0459118
0.275928	0.446981	0.0929564	0.0216444	0.0324641	-0.0426671	-0.0220931
0.253263	0.43488	-0.0563754	-0.0575178	-0.0969743	-0.065513	0.0424052
0.156736	0.363551	-0.00913654	-0.149735	-0.091495	0.0642978	0.0524161
0.0969704	0.295917	-0.0194291	-0.142295	-0.0349976	0.0430647	0.0740477
0.175811	0.380659	-0.0528608	-0.0901937	-0.0700564	-0.0449395	0.0553775
0.23092	0.421422	0.0723152	-0.029236	-0.0210017	-0.0511775	0.0111862
0.294693	0.455905	-0.0355919	0.0951152	0.019142	-0.0490784	-0.0465194
0.190216	0.392471	0.0274247	0.116438	0.0920822	0.122442	-0.06807
0.26254	0.440015	-0.0381624	0.0977724	0.0792974	0.12385	-0.062182
0.333088	0.471318	-0.060334	0.0655342	-0.0256865	-0.0710495	-0.0272831
0.188516	0.391124	0.10107	-0.0373477	-0.0025287	-0.0486937	0.022148
0.137431	0.344301	-0.00489896	-0.0816011	-0.05303	-0.0449559	0.0525925
0.0705792	0.256121	0.0266718	-0.120624	-0.0174604	0.0520636	0.0513083
0.233217	0.422879	-0.0251631	-0.171396	-0.0961979	0.038369	0.0861285
0.224346	0.417151	-0.0410844	-0.0273769	-0.0586397	-0.0698669	0.0239199
0.191883	0.393782	0.0747644	0.0279337	0.0260915	-0.0352976	-0.015827
0.194392	0.395732	-0.0308031	0.0971514	0.0462475	-0.0259596	-0.044755
0.14635	0.353457	0.0278649	0.0984162	0.100603	0.104456	-0.0643767
0.076984	0.266566	0.00291114	0.0313659	0.0885174	0.0819842	-0.0199765
0.173103	0.378337	-0.0575616	0.0794303	0.0872895	-0.00456413	-0.0532326
0.226487	0.418558	0.0658604	0.0489279	0.073037	-0.0284441	-0.035935
0.270799	0.444372	-0.0413783	-0.00225343	-0.0718877	-0.0751289	0.0239379
0.244595	0.429847	0.0263064	-0.133788	-0.130784	0.0580541	0.0686077
0.170742	0.376283	0.033206	-0.135365	-0.108603	0.045019	0.0615907
0.217979	0.412873	-0.0251644	-0.0379912	-0.089859	-0.0598643	0.0258993
0.211712	0.408522	0.0719457	0.020602	0.0178164	-0.0378341	-0.00355625
0.238649	0.426258	-0.066469	0.0840169	0.0576676	-0.0335679	-0.0372079
0.152421	0.359428	-0.0104208	0.0633219	0.12534	0.103826	-0.0470263
0.0753481	0.263952	0.0194566	0.0741943	0.0978083	0.0949283	-0.0201957
0.15589	0.362751	-0.0338337	0.106275	0.0676206	0.00137727	-0.0399082
0.188458	0.391077	0.0657718	0.0567613	0.0516128	-0.0270005	-0.0224175
0.264184	0.440898	-0.0369544	0.00265173	-0.0443486	-0.0781414	0.0163421
0.308197	0.461748	-0.00598627	-0.175621	-0.112261	0.0417595	0.04559
0.116004	0.32023	-0.0166366	0.0604294	0.0756597	0.0755	0.148315
0.180408	0.384527	-0.0448569	0.0687626	0.0297805	-0.0248588	0.0919253
0.200527	0.400394	0.0686459	0.0364192	0.0209429	-0.0323035	0.020062
0.266319	0.442033	-0.031032	-0.0132104	-0.051633	-0.0560166	-0.0707642
0.227304	0.419091	0.0192019	-0.129321	-0.0527603	0.0546457	-0.142368
0.0864439	0.281018	0.000770354	-0.0957948	-0.0224955	0.0625002	-0.0579437
0.215369	0.411078	-0.0423855	-0.0508562	-0.0662056	-0.024661	-0.0837847
0.258558	0.437842	0.0863283	0.00524326	0.00306287	-0.0366626	-0.0367238
0.275535	0.446783	-0.0487945	0.0676064	0.0180935	-0.0475149	0.0624478
0.152903	0.359894	0.00229089	0.0432527	0.0642891	0.0823119	0.107955
0.0432416	0.203401	-0.0136314	0.0307776	0.0720722	0.0647951	0.106145
0.101374	0.301823	-0.0453405	0.0582077	0.0657044	-0.00163633	0.104328
0.146079	0.353185	0.064464	0.0461631	0.0670921	-0.0193017	0.0671957
0.355139	0.478555	-0.0346711	0.0327306	-0.0232498	-0.087017	-0.00744397
0.346986	0.476011	0.020502	-0.11657	-0.100566	0.0749603	-0.154374
0.188624	0.39121	-0.0435422	-0.0886134	-0.028981	0.0662171	-0.0654657
0.285331	0.451572	-0.0577034	-0.00458482	-0.0472981	-0.0569707	-0.0480881
0.249091	0.432486	0.109924	0.0165091	0.0335482	-0.0350283	-0.00091949
0.170996	0.376505	-0.0252641	0.0551816	0.0114257	-0.0234505	0.0603469
0.0937074	0.291421	0.01391	0.0315748	0.0437071	0.0804735	0.0856346
0.164375	0.370616	-0.0202127	0.0478481	0.0312467	0.0867429	0.120978
0.261703	0.439562	-0.0415679	0.0687908	-0.0235135	-0.0470508	0.0588003
0.224015	0.416932	0.0888354	0.00462053	0.00700999	-0.0420741	-0.0309119
0.23244	0.422388	-0.0413723	-0.0451205	-0.0323383	-0.0402283	-0.0805717
0.109701	0.312517	0.0179847	-0.0977692	0.0277492	0.0733025	-0.0768927
0.176222	0.381009	-0.00491684	0.0719798	0.0384189	0.0834696	0.171368
0.250926	0.433546	-0.0471688	0.0703297	-0.00502702	-0.0525817	0.071375
0.210098	0.407378	0.0800078	0.00586098	0.0103395	-0.041762	-0.0302551
0.223781	0.416777	-0.0427137	-0.0476324	-0.043762	-0.0398475	-0.106428
0.126535	0.332451	0.0207676	-0.120566	0.001373	0.0732804	-0.118731
0.126123	0.331988	0.0181622	0.0640639	0.0124787	0.0867314	0.162268
0.236734	0.425078	-0.0424895	0.075679	-0.0228891	-0.0412396	0.0996235
0.229532	0.420532	0.0864627	0.0129173	0.00610406	-0.0447469	-0.0115943
0.2414	0.427932	-0.0589447	-0.0397627	-0.0185162	-0.0500642	-0.108561
0.15825	0.364976	0.000839692	-0.113803	0.0275224	0.0789555	-0.123722
0.230579	0.421203	0.0169788	0.0912796	0.00429197	0.0800204	0.191251
0.256625	0.436771	-0.0343584	0.0574375	-0.0215939	-0.0678343	0.0428713
0.196369	0.397251	0.0780529	-0.0128228	0.0120428	-0.0388202	-0.0475678
0.191136	0.393196	-0.057929	-0.0548399	-0.0174942	-0.0342382	-0.110763
0.116258	0.320535	-0.00354475	-0.114027	0.0270471	0.0767647	-0.115737
0.128111	0.334213	0.0164972	0.0725889	0.0156915	0.0852213	0.128632
0.22355	0.416623	-0.0318068	0.0827748	-0.0233026	-0.0372284	0.0676615
0.20738	0.40543	0.0813765	0.0191058	0.00939764	-0.0402001	-0.0131484
0.278913	0.448465	-0.0627633	-0.0450768	-0.0240577	-0.0522929	-0.0748393
0.154017	0.360965	0.00626269	-0.127391	0.029073	0.0737244	-0.0902527
0.199782	0.399837	0.0392796	0.101872	0.0527908	0.0879557	0.141626
0.250579	0.433346	-0.013032	0.0766723	-0.00284318	-0.060581	0.0385423
0.215929	0.411466	0.0891691	-0.0139512	0.0148711	-0.0382334	-0.0343748
0.204628	0.403429	-0.083157	-0.0656137	-0.050898	-0.0378491	-0.0769548
0.120279	0.325287	-0.0430614	-0.127254	-0.0199401	0.0671499	-0.0874096
0.390604	0.487886	0.0403304	0.0824863	-0.166924	0.0646635	-0.111781
0.255695	0.436251	-0.074631	0.00484367	0.0263348	-0.0733285	0.0184538
0.126752	0.332694	0.0302185	-0.0534279	0.0911758	-0.0234354	0.0591587
0.132449	0.338978	-0.0343165	-0.0418857	0.0734052	-0.0274541	0.0631372
0.0878621	0.283094	0.0496635	-0.0358937	0.0497326	0.0616442	0.0183589
0.034548	0.182632	-0.014953	-0.0818387	0.0454984	0.0510855	0.0787175
0.0881005	0.283441	-0.0526809	-0.0825461	0.0214197	-0.0136172	0.0875442
0.184868	0.38819	0.0675836	-0.0740273	0.0323463	-0.0403428	0.0545594
0.348911	0.476626	-0.0426542	0.031521	-0.0262103	-0.0897562	-0.014214
0.332675	0.471171	0.0235317	0.111023	-0.031985	0.112041	-0.114314
0.377467	0.484753	0.0899495	0.05166	-0.145396	0.0578916	0.0367782
0.235841	0.424523	-0.0253369	0.0227415	-0.0059415	-0.057945	-0.0183528
0.172324	0.377662	0.0171998	-0.0222825	0.0626784	-0.0277194	-0.020742
0.148489	0.355584	-0.0891773	-0.0373828	0.0699235	-0.0166179	-0.0102354
0.0591821	0.235965	-0.0341029	-0.054075	0.100334	0.0542131	0.00517343
0.0353802	0.184739	-0.0377228	-0.0568089	0.0922933	0.0542212	0.0983031
0.0809098	0.272696	-0.072524	-0.0481038	0.0806696	-0.00889068	0.0966407
0.143317	0.350396	0.0374217	-0.0461871	0.101239	-0.0337258	0.0660343
0.362132	0.480617	-0.0477754	0.0278146	0.00273196	-0.102678	5.45634E-05
0.368984	0.48253	0.074534	0.0553279	-0.15875	0.110655	-0.140836
0.287964	0.452814	0.0639155	0.0728738	-0.102406	0.108721	-0.115608
0.356864	0.479074	-0.0568766	0.0357944	-0.0309086	-0.0872315	-0.0278769
0.177431	0.382033	0.060404	-0.0425239	0.0684079	-0.0380553	0.0460417
0.114916	0.318921	-0.0649397	-0.0546093	0.0521827	-0.0214311	0.0892774
0.0546437	0.227283	-0.0198873	-0.0713987	0.0768209	0.0607146	0.0856474
0.0532343	0.2245	-0.0468161	-0.0354585	0.0929265	0.054135	0.106009
0.101616	0.302143	-0.074463	-0.01611	0.0658041	-0.0197618	0.0850873
0.180761	0.38482	0.0297878	-0.0130794	0.0789446	-0.038059	0.0496337
0.324397	0.468149	-0.0432712	0.0276597	-0.0357377	-0.0815455	-0.0196237
0.328033	0.469497	0.0871755	0.0109883	-0.117554	0.0987924	-0.127207
0.303303	0.459685	0.0565137	0.108654	-0.0631516	0.122281	-0.105642
0.363664	0.481054	-0.058745	0.0409211	-0.0222023	-0.099072	-0.0256516
0.17882	0.383201	0.0705792	-0.0692705	0.0532907	-0.0425828	0.0445826
0.106407	0.308357	-0.0726337	-0.0828465	0.026769	-0.0157937	0.0935408
0.0398467	0.195599	-0.0148527	-0.088412	0.0514264	0.0637401	0.075315
0.0324709	0.177247	-0.0232646	-0.0639138	0.0651566	0.056574	0.0695755
0.103673	0.304835	-0.0795427	-0.0599874	0.054873	-0.012902	0.0730413
0.212418	0.409019	0.0529494	-0.050513	0.0772076	-0.0458948	0.0398581
0.400586	0.490017	-0.0510061	0.0574779	-0.0401281	-0.0790386	-0.0348532
0.240699	0.427508	0.0724871	0.0526474	-0.0961347	0.119535	-0.0797167
0.0482685	0.214333	-0.0475522	-0.0641481	0.0878328	0.0499337	0.111051
0.100144	0.300191	-0.0713445	-0.0446695	0.0715923	-0.0216731	0.0962342
0.157195	0.363985	0.0544678	-0.0335742	0.0854135	-0.0451257	0.0590963
0.371029	0.48308	-0.0348382	0.0396332	-0.0294798	-0.0930433	-0.0215833
0.315641	0.464771	0.0604267	0.0441187	-0.125143	0.122714	-0.137687
0.0329466	0.178497	-0.0248211	-0.0817733	0.0388058	0.0478893	0.0467167
0.0964671	0.295231	-0.0736922	-0.0779621	0.0107873	-0.018049	0.0452042
0.299597	0.458081	0.0552248	-0.073059	0.0293089	-0.0616929	0.0226371
0.343416	0.474849	-0.0370398	0.0796679	-0.0279859	-0.0575047	-0.0316412
0.217542	0.412574	0.0429955	0.0814251	-0.0272955	0.126269	-0.0417662
0.0659867	0.248259	-0.0386014	-0.0691062	0.0919822	0.0486283	-0.0451392
0.169212	0.374939	-0.0825224	-0.0380151	0.0834313	-0.0273037	-0.0562897
0.263873	0.440731	0.0769864	-0.013433	0.0587746	-0.0331006	-0.0412478
0.33962	0.47358	-0.0219437	0.0588739	-0.110185	-0.0342376	0.0456341
0.14754	0.354643	0.0456196	0.0272185	-0.0826392	0.0809554	0.0803176
0.200247	0.400185	0.0915324	0.0131448	-0.0925585	0.0691967	0.105089
0.205575	0.404121	0.00627963	0.0255246	-0.062649	-0.0470536	0.0452132
0.187886	0.390621	0.0685133	0.00278656	0.0313065	-0.0293168	-0.0187444
0.240891	0.427625	-0.0915244	-0.00105917	0.0390092	-0.0456354	-0.050757
0.157306	0.364089	-0.074855	-0.0435412	0.0896533	0.0607664	-0.0860063
0.0197008	0.13897	-0.00757148	-0.0331009	0.06674	0.0357587	-0.00195711
0.0730533	0.260224	-0.0460046	-0.0182935	0.0739736	-0.0125826	-0.0190461
0.160374	0.366952	0.0686377	-0.0252953	0.100926	-0.0370136	-0.0258333
0.374373	0.483961	-0.0404968	0.0185809	-0.0157924	-0.0861469	-0.0061387
0.364776	0.481367	0.014506	0.0205218	-0.122165	0.111016	0.0361827
0.211231	0.408182	0.0725877	0.0721184	-0.0895467	0.0914034	0.137161
0.287903	0.452786	-0.0158108	0.0549641	-0.0533811	-0.0638453	0.0480724
0.227169	0.419003	0.0527313	-0.0209155	0.0472379	-0.0398505	-0.0506986
0.181377	0.385331	-0.0924339	-0.0532416	0.0545311	-0.0264357	-0.0854722
0.0838428	0.277152	-0.0340179	-0.0892416	0.0687476	0.0660805	-0.0853928
0.218417	0.413172	-0.102359	-0.0802589	0.110502	0.0432784	-0.0661062
0.27238	0.445185	-0.0709927	-0.00174016	0.0139724	-0.0574257	-0.02599
0.234456	0.423658	0.0995055	0.0201424	0.000938153	-0.0296216	0.000543111
0.171698	0.377118	0.0205447	0.0495553	-0.0905521	-0.0127417	0.0547018
0.0935764	0.291239	0.0793245	0.0242299	-0.0659948	0.085038	0.060683
0.219925	0.414196	0.0768586	0.0411972	-0.118212	0.0803193	0.11245
0.239721	0.426913	-0.00839062	0.0368697	-0.0582623	-0.0599725	0.0407028
0.160997	0.367528	0.0695384	-0.00337461	0.0469679	-0.0334213	-0.0226962
0.210755	0.407845	-0.0803648	-0.0129321	0.0496977	-0.0465702	-0.053967
0.160294	0.366878	-0.0591184	-0.0709724	0.0965459	0.0638107	-0.0922314
0.0424961	0.201718	-0.0144533	-0.0333437	0.0870622	0.0514859	-0.0121884
0.0933942	0.290984	-0.0611925	-0.00948329	0.0841483	-0.0107856	-0.0289684
0.224259	0.417093	0.0437163	-0.00822227	0.0989382	-0.0329127	-0.0403022
0.364924	0.481409	-0.0595389	0.0307819	-0.058365	-0.072534	0.00571873
0.265987	0.441858	0.0690025	-0.00365104	-0.12718	0.093202	0.0556937
0.231594	0.421851	0.0455752	0.0690912	-0.115726	0.0910335	0.0938598
0.270031	0.443976	-0.0474006	0.0417944	-0.0488535	-0.0586309	0.0145137
0.311483	0.4631	0.0891353	-0.036443	0.0778815	-0.0413351	-0.0540128
0.130717	0.33709	-0.097701	-0.0487155	0.058551	-0.0161369	-0.0429953
0.0464012	0.210352	-0.0353805	-0.0669035	0.0649294	0.0566712	-0.0323183
0.109785	0.312621	-0.064466	-0.0685186	0.109526	0.0531246	-0.0163323
0.190427	0.392638	-0.0928423	-0.0199058	0.0690484	-0.033746	-0.0318206
0.2269	0.418827	0.0615983	0.00183465	0.0441294	-0.0368552	-0.0268417
0.294978	0.456033	-0.0087367	0.0484564	-0.0916701	-0.0501037	0.0284563
0.168765	0.374544	0.0909573	0.0175556	-0.103884	0.0925118	0.0415623
0.0265753	0.160839	-0.00597737	-0.0463738	0.0662033	0.046396	-0.00207411
0.0946411	0.292719	-0.0598494	-0.0290608	0.0665585	-0.0161495	-0.0304131
0.312595	0.463551	0.0929543	-0.0361581	0.0862953	-0.0555203	-0.0433736
0.348686	0.476554	-0.0579196	0.052215	-0.0769317	-0.0511279	0.0218634
0.207181	0.405286	0.00540329	0.0199493	-0.0850521	0.116287	0.0458287
0.0432219	0.203356	0.0716761	-0.047506	0.0490748	0.0357588	0.00386006
0.100908	0.301207	0.0646167	-0.0248214	0.0260887	-0.0301912	-0.00484109
0.247564	0.431597	0.146798	-0.0158654	0.0194073	-0.0340887	-0.011097
0.326951	0.469099	-0.0703243	0.02604	-0.0429069	-0.0454764	0.00210056
0.270537	0.444237	-0.146637	0.0269101	-0.0157115	0.0846067	0.00993527
0.374277	0.483936	-0.153984	0.0478923	-0.0277949	0.102602	0.0440965
0.312801	0.463634	-0.0201149	0.0239214	-0.029744	-0.0813028	-0.0117048
0.183372	0.386971	0.159194	-0.0363364	0.0463244	-0.0359717	-0.0255046
0.087414	0.282441	0.0430558	-0.0359532	0.00840537	-0.022657	-0.0161429
0.0345273	0.182579	0.0521261	-0.053103	0.0337924	0.0449616	-0.00929983
0.0232661	0.150747	0.03895	-0.0320283	0.029352	0.03259	0.0418812
0.0715425	0.257729	0.0313172	-0.0131882	0.00441375	-0.0257113	0.0453086
0.171841	0.377242	0.14066	-0.0102031	0.0287996	-0.0443828	0.0328255
0.309436	0.462261	-0.0231537	0.0282474	-0.0178532	-0.0819416	0.00923303
0.414685	0.492668	-0.115541	-0.00172011	-0.0185137	0.11388	-0.0705575
0.407429	0.491356	-0.141911	0.0317906	-0.0405165	0.103449	0.000166349
0.297292	0.457066	-0.0155062	0.0210362	-0.0210127	-0.0877077	-0.0101339
0.186217	0.389282	0.159133	-0.0338074	0.048672	-0.0352739	-0.00645391
0.0680126	0.251768	0.0268591	-0.0187979	0.0143222	-0.0222218	0.0165307
0.0327328	0.177937	0.041524	-0.0395381	0.0341482	0.0470624	0.0145002
0.0160488	0.125663	0.0293854	-0.0638698	0.0351003	0.032642	0.0112609
0.0584828	0.234654	0.0250602	-0.063411	0.00727443	-0.0213836	-0.00100117
0.268921	0.443399	0.141983	-0.0514606	0.0121426	-0.0612052	-0.0125395
0.389659	0.487673	-0.0703939	0.0586903	-0.048719	-0.0594896	-0.00646807
0.257566	0.437293	-0.0889678	0.0397997	0.0258733	0.130016	0.0168833
0.460646	0.498449	-0.0974474	0.0410743	-0.0148597	0.123454	-0.0266671
0.303591	0.459808	-0.0144722	0.0126121	-0.0236262	-0.105962	-0.00292468
0.117075	0.32151	0.130142	-0.0364796	0.0358838	-0.0400809	0.0150985
0.0724092	0.259164	0.0261029	-0.025924	0.00254997	-0.0295559	0.0284143
0.0365178	0.187575	0.0316436	-0.0398086	0.0277462	0.040084	0.0117999
0.0152097	0.122386	0.0305498	-0.0485213	0.0425197	0.0367209	-0.00399937
0.0555764	0.229102	0.0172743	-0.0456958	0.023263	-0.0144313	-0.0279778
0.17833	0.38279	0.133436	-0.0474612	0.0495904	-0.0425834	-0.0399385
0.395899	0.489043	-0.0302564	0.0300331	-0.0430458	-0.0849878	-0.0117542
0.344889	0.475332	-0.0939657	0.0423898	-0.0202412	0.118641	0.0586565
0.102462	0.303255	0.11329	-0.0290835	0.0240602	0.0574756	0.0222514
0.19535	0.39647	0.0636739	-0.004638	0.00196131	-0.0526468	-0.00405601
0.248387	0.432078	0.0945629	0.00632141	0.00691676	-0.0369292	-0.00644009
0.282157	0.45005	-0.121525	0.0215628	-0.0335663	-0.031406	-0.00125141
0.161982	0.368434	-0.125824	-0.00344733	0.0086133	0.0905013	-0.00519154
0.0196456	0.138779	0.0251109	-0.0222191	0.0731784	0.0380083	0.036787
0.0558266	0.229586	0.0177865	-0.00198795	0.0649223	-0.0175404	0.0272863
0.126164	0.332034	0.127608	-0.000996605	0.0838878	-0.02972	0.0190615
0.339198	0.473437	-0.00922878	0.0400952	-0.00170092	-0.0887213	0.0119044
0.449834	0.497477	-0.0931632	-0.029871	-0.107033	0.101292	-0.047297
0.0163482	0.126811	0.0407204	-0.0597104	0.035212	0.031179	0.0246993
0.0626282	0.242293	0.0377229	-0.0552341	0.00021658	-0.0252397	0.0188374
0.20894	0.406551	0.155381	-0.0401044	0.0131479	-0.0607679	0.0150136
0.338154	0.473081	-0.0384226	0.039281	-0.0357976	-0.07776	0.000299655
0.36609	0.481734	-0.124151	0.039486	0.0129331	0.131952	-0.0294949
	
